digraph Tree {
node [shape=box, style="filled, rounded", color="black", fontname="helvetica"] ;
edge [fontname="helvetica"] ;
0 [label="instrumentalness <= 0.544\nsquared_error = 497.843\nsamples = 91199\nvalue = 33.299", fillcolor="#e99456"] ;
1 [label="acousticness <= 0.88\nsquared_error = 517.482\nsamples = 76533\nvalue = 34.208", fillcolor="#e68844"] ;
0 -> 1 [labeldistance=2.5, labelangle=45, headlabel="True"] ;
2 [label="squared_error = 516.108\nsamples = 71905\nvalue = 34.758", fillcolor="#e58139"] ;
1 -> 2 ;
3 [label="squared_error = 460.996\nsamples = 4628\nvalue = 25.657", fillcolor="#fdf5ef"] ;
1 -> 3 ;
4 [label="duration_ms <= 268153.0\nsquared_error = 368.525\nsamples = 14666\nvalue = 28.553", fillcolor="#f5d0b5"] ;
0 -> 4 [labeldistance=2.5, labelangle=-45, headlabel="False"] ;
5 [label="squared_error = 378.45\nsamples = 8977\nvalue = 30.906", fillcolor="#efb286"] ;
4 -> 5 ;
6 [label="squared_error = 330.344\nsamples = 5689\nvalue = 24.84", fillcolor="#ffffff"] ;
4 -> 6 ;
}